3 400
gut 0.918889 0.277715 1.701844 1.587222 -0.267371 0.286538 -0.608342 0.634949 -1.265919 0.468643 -1.212043 -1.897202 -1.094614 -0.117864 0.927679 -0.544963 -1.414722 1.485620 -0.203420 1.238886 0.622023 1.408105 0.221311 2.760004 -0.911968 2.786545 -1.785812 0.735755 0.467677 -0.083970 0.635029 -0.024620 0.358173 1.720999 0.781047 -0.043620 -1.480352 -1.831851 0.345592 1.477172 0.502055 1.464541 -0.875428 0.255074 0.327746 -0.284044 -1.078753 0.989407 1.489947 -1.207869 0.049986 -1.332880 0.047479 -1.273451 -0.218766 -0.278507 1.483139 -1.091375 -0.190065 1.227186 1.021350 -1.062813 -1.043418 -1.305426 1.165764 0.298099 0.767302 0.930267 1.234760 -0.869289 0.135344 -1.122789 1.361977 -0.513247 -0.247791 -1.240921 1.341845 -0.874887 -0.069887 -1.389238 0.197404 1.080047 -0.310751 1.286108 0.726361 0.333125 -0.217267 -1.240137 -1.282264 0.332822 0.060170 0.974686 0.199895 0.415437 -3.246735 0.142034 -0.295625 -0.645856 0.882666 2.004355 -0.856748 0.522621 -0.395994 -0.061478 -0.297459 -1.180416 -0.393611 -0.087485 2.256999 -0.460072 -0.495975 -0.562076 0.005049 0.223177 -1.162709 -0.983121 -0.957706 -0.893562 1.068101 -2.882813 0.115238 1.845000 -0.774614 0.555664 1.423872 -0.369687 1.074069 0.004719 0.123962 -1.137547 -0.821852 0.783895 0.054702 -0.647225 0.287144 0.821075 1.191784 1.097716 -1.029997 -0.183591 1.442084 -0.857343 1.790212 -0.869006 0.404455 0.420383 0.076692 -1.260312 0.246497 -0.609683 0.932137 0.446123 1.418837 -0.341872 0.553613 -1.103409 -0.114073 1.032290 -0.087302 0.298687 -0.726792 -0.635328 0.281209 2.210797 0.912301 -0.702521 -0.264161 0.734430 0.466887 0.528374 1.194481 -1.215810 -0.211934 -1.913015 -1.035346 -0.337181 -0.617123 0.333923 -1.915256 -1.089106 -0.796098 0.547060 0.549090 -0.381784 -0.825112 0.115791 0.200151 0.168661 -1.365359 0.746695 0.103041 0.071104 -1.181665 -0.347092 0.688640 -0.903097 1.223523 -1.356347 0.001962 0.193564 -1.039558 -0.969826 1.188655 -0.382059 2.449647 0.679411 -0.627772 -0.042502 -1.783103 -0.497858 -0.457112 -0.513516 0.118124 -1.534159 -0.195034 -0.208731 -0.366082 -1.514288 -0.148090 1.749214 0.078408 0.400339 -0.132609 -0.958056 -0.102854 0.451122 1.014674 0.780917 -2.381718 -1.336883 -1.788633 1.712093 -2.701400 -1.753012 2.181281 1.148621 -1.605223 0.811382 0.686183 0.032224 0.642212 -0.455244 0.345695 -1.736827 -1.495903 0.609862 -0.737194 -1.063027 -0.280375 -0.533989 -0.602779 0.397802 -1.576890 1.014660 -0.097326 -1.179107 0.563743 -0.483607 -0.460778 -0.489173 -1.041424 -0.062205 0.113029 -0.140444 0.955130 -0.290302 1.591275 -0.378666 -0.492713 0.235491 1.008861 0.077900 1.894961 1.062351 0.078777 0.103277 1.008874 -1.259092 -0.461232 -0.063819 0.524387 1.529823 0.848075 1.101189 -1.542405 -0.138100 -0.400039 2.086554 0.346789 -0.204640 -1.164010 0.266877 -1.177089 1.526353 -0.797934 -0.210644 -1.360237 -0.661880 0.553508 0.672792 -1.044301 0.570675 -1.160853 0.079379 0.990791 -1.990519 1.591073 -0.509928 -1.739842 0.528817 0.802946 -0.130695 0.861046 -0.478540 -0.771881 0.837465 0.776098 0.487051 -0.007756 1.579610 -1.525754 -0.662372 -1.582586 1.002226 0.253594 1.193665 -1.634610 0.325212 -0.278259 0.319127 0.821703 -0.878097 3.012341 0.835836 -0.783159 -1.998619 -0.123551 -0.144008 0.148920 2.737340 -1.378688 0.179702 -2.581984 0.191595 -1.144820 0.169208 0.716370 -0.494611 0.018458 0.360278 -1.681008 0.126987 0.028238 1.196846 -2.547594 -0.188203 0.985125 0.440516 -1.226694 0.181599 0.501952 -1.075464 -0.565189 0.883777 -0.167395 -0.510441 -1.364071 0.089359 1.654170 -0.287787 0.578070 -1.017765 0.637829 0.871619 0.876340 -0.973618 0.894380 -1.143726 -0.731992 -0.956562 2.008037 0.986432 0.261161 0.039624 0.136486 -0.941451 0.426899 0.547004 0.733228 -0.672077 1.690329 0.677241 -0.058098 -1.800766 -1.544149 -1.881164 0.253361 -1.499554 2.384279 0.871626 
gute 0.601875 -0.087636 0.348052 0.818802 -0.109277 -0.973411 -0.278595 0.697331 -1.703855 -0.023047 -0.882197 -1.944693 -2.456359 0.248729 2.142928 -0.024327 -0.051674 0.402284 -0.034476 0.593056 0.704166 1.815404 -0.693081 1.918063 -1.503366 0.409318 -0.052153 0.412155 -1.071499 -0.751913 -1.017805 -1.139592 0.209642 0.889005 -0.846447 0.126830 -0.222202 -1.061547 0.279895 -0.156718 0.096812 1.032488 0.262054 1.035897 0.098453 -0.981234 -0.329368 0.925815 -0.074850 0.284810 1.537957 -1.003729 1.135366 0.619064 -0.627988 0.122781 0.314609 -0.602580 -0.128219 0.628401 0.370111 -0.491236 -1.120844 0.356320 0.123699 -1.105677 0.360341 0.377579 0.117822 -0.887773 -0.007677 0.869527 -0.450228 -0.038878 -1.197273 -1.314603 0.145726 0.366731 -0.333065 -0.215054 -1.184450 -0.047612 -0.269164 0.954971 0.967251 0.329099 -0.580841 0.090853 0.192901 0.890181 -0.077825 1.646329 -0.359894 0.083972 -1.302254 -0.266026 -0.118882 -0.098777 0.257207 1.560123 -0.598208 0.061260 -0.591582 0.081939 0.118347 -1.494374 -0.258775 -1.562903 1.547792 -1.453172 -0.576690 -0.013333 0.248228 1.028790 -0.580338 -0.532786 -0.386730 -1.281311 1.492654 -3.480184 0.728945 0.032565 0.552389 1.111479 0.512661 1.137381 0.160744 -1.412825 0.697033 -0.554661 -1.007547 1.931190 1.146699 -0.497254 -0.174685 0.876825 0.255822 0.228832 0.175999 -0.675423 0.418457 -0.203602 1.299551 -1.165430 -0.447351 0.767698 -0.643242 -0.272124 -1.180913 -1.587331 0.019725 -0.405919 -0.465684 -1.388582 2.012944 0.508668 0.711061 0.974913 -0.242016 0.680760 -0.220357 0.091006 -0.981388 0.786401 -0.537838 -0.600972 0.389881 1.160067 -0.702799 0.974447 0.910606 -1.431693 0.150868 0.470557 -1.041160 -0.955928 -2.215880 -0.919763 1.088339 1.016773 -0.401111 -1.442286 -1.402017 -0.222559 -0.152942 0.124579 -1.216267 0.563029 0.620524 -0.923587 -0.470135 0.750490 -2.553064 -1.116307 -0.701007 -0.751325 0.903799 -0.873421 0.378139 0.316574 -1.585795 -0.839366 0.957502 -1.024106 0.944997 -0.218301 0.265913 0.302703 0.697716 0.183992 0.015145 -0.711350 -0.075210 -0.098343 -1.067385 0.533967 -0.301460 0.170150 1.625083 1.542344 -0.093434 1.160748 0.128009 -0.656588 1.008642 -0.676104 1.518946 1.241340 -0.641955 -1.724722 -0.214078 1.071811 -1.928096 -1.156227 1.106067 1.212622 -1.880206 1.528490 0.796598 1.116807 1.211218 -0.075677 0.697168 -0.049735 -0.928781 0.708159 0.665999 -2.307804 0.206658 0.251990 1.699307 0.275039 -0.385132 -0.002422 -1.135948 0.189123 0.629662 1.669422 0.058367 1.080426 -0.959671 0.205988 1.234082 0.042220 0.294919 -0.877730 1.210542 0.895592 0.086065 -0.386875 -1.277725 0.293137 1.083035 -0.548912 -0.392302 -0.760849 0.372901 0.764138 -1.522262 -0.597379 0.296872 -0.574356 -0.747811 0.229422 0.329384 0.010106 -0.705280 1.289416 0.599301 0.706888 -1.967867 -0.866419 -0.168835 1.814742 1.574956 0.074714 -1.330667 0.235112 0.579168 -0.401112 -0.048045 -0.138321 -0.628650 -0.014171 0.392640 -0.345432 2.254292 1.051707 -0.395481 0.531271 -0.294326 -0.508150 0.372439 -0.381442 -0.006808 0.089105 -0.339695 0.093797 -0.577752 -0.767129 -1.129880 -1.282216 0.558548 1.910589 0.184417 -0.849916 0.109943 0.432448 -0.266525 -0.000533 0.632301 0.264689 0.429004 0.558096 -0.547392 -1.375649 -0.687817 0.323948 -1.213734 -0.513366 -0.905474 0.565281 0.470293 -0.290616 0.184037 1.843780 2.458939 -0.677961 -0.382005 -1.059487 -1.722542 0.100221 -1.085815 1.395311 0.397244 0.301260 -0.260937 -0.280394 -0.707630 -0.781366 0.853566 -0.139158 0.076231 -0.712876 -0.671111 -1.188042 0.017700 -0.580422 3.025211 0.153146 -0.900504 -1.296889 0.624763 -0.698062 -0.599674 -0.754570 1.185918 -0.663704 -0.228357 0.369283 1.612529 0.599365 0.585701 -0.469654 -1.373179 0.732193 1.696632 0.104976 0.344739 -0.450207 -0.051413 -1.323219 1.888276 -1.093226 -0.053177 0.313635 0.663093 -0.473811 0.744727 -0.010943 
schlecht 0.325379 -0.749751 1.280204 0.991131 0.477244 1.331252 1.176941 0.795355 -1.399105 0.172607 0.063022 -1.727351 -1.817508 -0.803883 -0.099684 -0.696363 -0.804250 0.966473 0.260722 0.151231 -0.327478 0.180283 0.182223 0.948054 -0.923770 2.034707 -1.641420 -0.437364 0.823267 0.648958 1.717860 0.897539 0.928022 1.090512 2.608242 0.182899 -1.271686 -1.948240 0.331526 1.001487 0.237823 0.823497 -0.559658 -0.407230 -0.444207 -0.816265 -0.407545 -0.087414 1.389027 -0.546943 -0.178378 -1.297305 0.198334 -2.238672 0.133880 -0.417873 1.785834 0.138573 0.519519 1.327751 0.731840 -0.020683 0.824362 0.230949 -1.290391 -0.395664 1.068324 0.002238 1.521375 -0.311651 -0.723871 -0.939055 0.882594 -0.499020 0.814382 -0.705120 1.801554 -1.190304 -0.517481 -0.982747 0.163349 1.239302 1.367166 0.023215 -0.446163 -0.179543 -0.405520 -1.331173 -0.580479 -0.573979 -0.878564 0.181073 1.275796 -0.244403 -1.968067 -0.188341 -0.480172 0.212871 0.031727 -0.153643 -0.366230 2.100452 -1.605760 -1.060135 0.763050 -0.048569 -0.770256 1.113268 1.415364 0.830753 0.456534 -0.466248 2.339983 0.207394 -1.078249 -0.841729 -0.333475 -1.310811 0.090768 -0.326600 -2.380157 0.919863 -0.992476 0.970056 0.950143 -1.059248 -0.342005 -0.087722 0.174227 -0.627538 -1.219492 -0.799487 0.508569 -1.119798 1.158908 0.494677 0.806748 0.979797 -0.178319 -0.454223 0.638541 0.206176 0.680623 0.171885 1.748607 -0.277370 -0.494955 -0.039507 1.160851 0.814932 0.397535 0.804049 2.028855 -0.553627 -0.257328 -0.748138 -1.550722 0.766644 1.470450 -0.145725 -0.555771 -0.793846 0.922485 1.792928 0.476717 -0.044387 -1.099917 0.208093 0.397748 0.704373 -0.426882 0.499475 0.341248 -1.405935 -1.996469 -0.754592 -0.929536 0.426584 -2.688640 -0.285987 0.343393 1.335447 1.440907 0.173987 0.046088 -0.570357 0.642617 -0.395270 -1.927486 1.280636 0.194850 0.445498 -0.562285 -0.315046 0.111231 -0.528142 -0.939632 -0.645417 0.140231 0.666925 -0.780103 -0.968960 0.944028 -0.987124 1.732426 0.622713 -0.301999 -0.546835 -1.403234 0.035426 0.892269 -1.521320 0.441107 -1.500062 0.283342 -1.236895 -0.018972 -0.580045 -1.638709 0.703697 1.137943 0.406312 -0.496193 -1.005000 -0.879460 1.258675 0.574727 1.847435 -0.850326 0.470751 -1.112531 0.738153 -1.694942 -0.638591 2.176922 0.706129 -1.714683 0.850280 -0.629306 -1.009469 0.028969 0.302991 -0.976345 -0.979998 -1.532106 0.278099 -1.126199 -0.805049 -1.331432 -0.810860 -1.113696 -0.086752 -2.203989 -0.222652 -0.311583 0.171772 1.011381 -0.918362 0.509824 -1.465712 -0.614585 -0.152353 0.269230 -1.150898 1.645658 0.215803 -0.222514 -0.405833 0.506082 -0.281593 -0.719407 0.500264 1.943578 0.929452 0.704764 -0.345675 0.133598 -1.295370 1.150107 1.399285 -0.618150 0.562494 0.487965 0.662104 -0.550584 0.754152 -0.760102 2.099439 -0.524422 -0.018959 -0.788002 0.013947 -1.691701 0.697296 -0.508985 0.819059 -0.853002 -0.562547 -0.031010 0.932538 -1.297452 0.221597 0.001412 0.054840 0.742710 -0.705251 -0.484414 -0.325386 -1.498541 1.373216 0.932860 0.288823 -0.076633 0.237637 -0.987046 1.029534 1.142614 1.991889 0.526909 1.838226 -1.847889 -0.105793 -1.154307 -0.223706 0.566471 0.148230 -1.903199 -0.198398 -0.440244 -0.652091 0.194967 -0.500408 3.232731 1.662861 -0.520680 -0.830580 0.202582 0.246181 -0.386970 1.933925 -0.843478 0.520361 -2.735549 0.844617 -0.403407 -0.951192 -0.281708 0.325312 -0.887696 -0.345100 -0.866935 0.477740 -0.123788 0.511168 -2.934503 0.718795 0.686677 0.332951 -1.092778 0.084808 -0.414011 1.107503 -0.174967 1.095455 0.852676 -1.054336 -1.145625 0.321502 1.985869 0.432103 0.304991 -0.193069 0.381311 1.118835 0.261317 0.505203 -0.491092 -1.283116 -1.106561 -0.310019 1.215576 0.079482 0.634149 0.047166 1.163772 -0.675077 0.121582 0.349099 1.235926 -0.002329 1.685233 1.127715 0.074440 -0.174499 -0.676693 -0.110861 0.281349 -1.618413 3.209420 1.359227 
